Language model created by QuickLM on Thu Mar 29 20:35:53 EDT 2018
Copyright (c) 1996-2010 Carnegie Mellon University and Alexander I. Rudnicky

The model is in standard ARPA format, designed by Doug Paul while he was at MITRE.

The code that was used to produce this language model is available in Open Source.
Please visit http://www.speech.cs.cmu.edu/tools/ for more information

The (fixed) discount mass is 0.5. The backoffs are computed using the ratio method.
This model based on a corpus of 44 sentences and 46 words

\data\
ngram 1=46
ngram 2=88
ngram 3=44

\1-grams:
-0.7782 </s> -0.3010
-0.7782 <s> -0.2218
-2.4216 ALARM -0.2218
-2.4216 BUTTERHORN -0.2218
-2.4216 CAGE -0.2218
-2.4216 CHECK -0.2218
-2.4216 CONNECTED -0.2218
-2.4216 DAGOBERTO -0.2218
-2.4216 DESPACITO -0.2218
-2.4216 DOGS -0.2218
-2.4216 EMAIL -0.2218
-2.4216 EVENTS -0.2218
-2.4216 EXIT -0.2218
-2.4216 FUCK -0.2218
-2.4216 GOODBYE -0.2218
-2.4216 GOOGLE -0.2218
-2.4216 HISTORY -0.2218
-2.4216 HOLA -0.2218
-2.4216 JOKE -0.2218
-2.4216 KIFTAY -0.2218
-2.4216 KYLE -0.2218
-2.4216 LET -0.2218
-2.4216 LIGHTS -0.2218
-2.4216 MUSIC -0.2218
-2.4216 NICK -0.2218
-2.4216 NO -0.2218
-2.4216 OFF -0.2218
-2.4216 ON -0.2218
-2.4216 OUT -0.2218
-2.4216 PAPI -0.2218
-2.4216 PASA -0.2218
-2.4216 PLAY -0.2218
-2.4216 QUE -0.2218
-2.4216 QUIT -0.2218
-2.4216 SEARCH -0.2218
-2.4216 SEND -0.2218
-2.4216 SET -0.2218
-2.4216 SHREK -0.2218
-2.4216 TIMER -0.2218
-2.4216 TRAFFIC -0.2218
-2.4216 TURN -0.2218
-2.4216 USER -0.2218
-2.4216 WEATHER -0.2218
-2.4216 WHERE -0.2218
-2.4216 YES -0.2218
-2.4216 YOU -0.2218

\2-grams:
-1.9445 <s> ALARM 0.0000
-1.9445 <s> BUTTERHORN 0.0000
-1.9445 <s> CAGE 0.0000
-1.9445 <s> CHECK 0.0000
-1.9445 <s> CONNECTED 0.0000
-1.9445 <s> DAGOBERTO 0.0000
-1.9445 <s> DESPACITO 0.0000
-1.9445 <s> DOGS 0.0000
-1.9445 <s> EMAIL 0.0000
-1.9445 <s> EVENTS 0.0000
-1.9445 <s> EXIT 0.0000
-1.9445 <s> FUCK 0.0000
-1.9445 <s> GOODBYE 0.0000
-1.9445 <s> GOOGLE 0.0000
-1.9445 <s> HISTORY 0.0000
-1.9445 <s> HOLA 0.0000
-1.9445 <s> JOKE 0.0000
-1.9445 <s> KIFTAY 0.0000
-1.9445 <s> KYLE 0.0000
-1.9445 <s> LET 0.0000
-1.9445 <s> LIGHTS 0.0000
-1.9445 <s> MUSIC 0.0000
-1.9445 <s> NICK 0.0000
-1.9445 <s> NO 0.0000
-1.9445 <s> OFF 0.0000
-1.9445 <s> ON 0.0000
-1.9445 <s> OUT 0.0000
-1.9445 <s> PAPI 0.0000
-1.9445 <s> PASA 0.0000
-1.9445 <s> PLAY 0.0000
-1.9445 <s> QUE 0.0000
-1.9445 <s> QUIT 0.0000
-1.9445 <s> SEARCH 0.0000
-1.9445 <s> SEND 0.0000
-1.9445 <s> SET 0.0000
-1.9445 <s> SHREK 0.0000
-1.9445 <s> TIMER 0.0000
-1.9445 <s> TRAFFIC 0.0000
-1.9445 <s> TURN 0.0000
-1.9445 <s> USER 0.0000
-1.9445 <s> WEATHER 0.0000
-1.9445 <s> WHERE 0.0000
-1.9445 <s> YES 0.0000
-1.9445 <s> YOU 0.0000
-0.3010 ALARM </s> -0.3010
-0.3010 BUTTERHORN </s> -0.3010
-0.3010 CAGE </s> -0.3010
-0.3010 CHECK </s> -0.3010
-0.3010 CONNECTED </s> -0.3010
-0.3010 DAGOBERTO </s> -0.3010
-0.3010 DESPACITO </s> -0.3010
-0.3010 DOGS </s> -0.3010
-0.3010 EMAIL </s> -0.3010
-0.3010 EVENTS </s> -0.3010
-0.3010 EXIT </s> -0.3010
-0.3010 FUCK </s> -0.3010
-0.3010 GOODBYE </s> -0.3010
-0.3010 GOOGLE </s> -0.3010
-0.3010 HISTORY </s> -0.3010
-0.3010 HOLA </s> -0.3010
-0.3010 JOKE </s> -0.3010
-0.3010 KIFTAY </s> -0.3010
-0.3010 KYLE </s> -0.3010
-0.3010 LET </s> -0.3010
-0.3010 LIGHTS </s> -0.3010
-0.3010 MUSIC </s> -0.3010
-0.3010 NICK </s> -0.3010
-0.3010 NO </s> -0.3010
-0.3010 OFF </s> -0.3010
-0.3010 ON </s> -0.3010
-0.3010 OUT </s> -0.3010
-0.3010 PAPI </s> -0.3010
-0.3010 PASA </s> -0.3010
-0.3010 PLAY </s> -0.3010
-0.3010 QUE </s> -0.3010
-0.3010 QUIT </s> -0.3010
-0.3010 SEARCH </s> -0.3010
-0.3010 SEND </s> -0.3010
-0.3010 SET </s> -0.3010
-0.3010 SHREK </s> -0.3010
-0.3010 TIMER </s> -0.3010
-0.3010 TRAFFIC </s> -0.3010
-0.3010 TURN </s> -0.3010
-0.3010 USER </s> -0.3010
-0.3010 WEATHER </s> -0.3010
-0.3010 WHERE </s> -0.3010
-0.3010 YES </s> -0.3010
-0.3010 YOU </s> -0.3010

\3-grams:
-0.3010 <s> ALARM </s>
-0.3010 <s> BUTTERHORN </s>
-0.3010 <s> CAGE </s>
-0.3010 <s> CHECK </s>
-0.3010 <s> CONNECTED </s>
-0.3010 <s> DAGOBERTO </s>
-0.3010 <s> DESPACITO </s>
-0.3010 <s> DOGS </s>
-0.3010 <s> EMAIL </s>
-0.3010 <s> EVENTS </s>
-0.3010 <s> EXIT </s>
-0.3010 <s> FUCK </s>
-0.3010 <s> GOODBYE </s>
-0.3010 <s> GOOGLE </s>
-0.3010 <s> HISTORY </s>
-0.3010 <s> HOLA </s>
-0.3010 <s> JOKE </s>
-0.3010 <s> KIFTAY </s>
-0.3010 <s> KYLE </s>
-0.3010 <s> LET </s>
-0.3010 <s> LIGHTS </s>
-0.3010 <s> MUSIC </s>
-0.3010 <s> NICK </s>
-0.3010 <s> NO </s>
-0.3010 <s> OFF </s>
-0.3010 <s> ON </s>
-0.3010 <s> OUT </s>
-0.3010 <s> PAPI </s>
-0.3010 <s> PASA </s>
-0.3010 <s> PLAY </s>
-0.3010 <s> QUE </s>
-0.3010 <s> QUIT </s>
-0.3010 <s> SEARCH </s>
-0.3010 <s> SEND </s>
-0.3010 <s> SET </s>
-0.3010 <s> SHREK </s>
-0.3010 <s> TIMER </s>
-0.3010 <s> TRAFFIC </s>
-0.3010 <s> TURN </s>
-0.3010 <s> USER </s>
-0.3010 <s> WEATHER </s>
-0.3010 <s> WHERE </s>
-0.3010 <s> YES </s>
-0.3010 <s> YOU </s>

\end\
