Language model created by QuickLM on Tue Mar 27 23:22:25 EDT 2018
Copyright (c) 1996-2010 Carnegie Mellon University and Alexander I. Rudnicky

The model is in standard ARPA format, designed by Doug Paul while he was at MITRE.

The code that was used to produce this language model is available in Open Source.
Please visit http://www.speech.cs.cmu.edu/tools/ for more information

The (fixed) discount mass is 0.5. The backoffs are computed using the ratio method.
This model based on a corpus of 108 sentences and 110 words

\data\
ngram 1=110
ngram 2=216
ngram 3=108

\1-grams:
-0.7782 </s> -0.3010
-0.7782 <s> -0.2218
-2.8116 A.M. -0.2218
-2.8116 ADIOS -0.2218
-2.8116 ALARM -0.2218
-2.8116 AM -0.2218
-2.8116 BUTTERHORN -0.2218
-2.8116 CAGE -0.2218
-2.8116 CHECK -0.2218
-2.8116 CONNECTED -0.2218
-2.8116 DAGOBERTO -0.2218
-2.8116 DESPACITO -0.2218
-2.8116 DOGS -0.2218
-2.8116 EIGHT -0.2218
-2.8116 EIGHTEEN -0.2218
-2.8116 ELEVEN -0.2218
-2.8116 EMAIL -0.2218
-2.8116 EVENTS -0.2218
-2.8116 EXIT -0.2218
-2.8116 FIFTEEN -0.2218
-2.8116 FIFTY-EIGHT -0.2218
-2.8116 FIFTY-FIVE -0.2218
-2.8116 FIFTY-FOUR -0.2218
-2.8116 FIFTY-NINE -0.2218
-2.8116 FIFTY-ONE -0.2218
-2.8116 FIFTY-SEVEN -0.2218
-2.8116 FIFTY-SIX -0.2218
-2.8116 FIFTY-THREE -0.2218
-2.8116 FIFTY-TWO -0.2218
-2.8116 FIVE -0.2218
-2.8116 FOUR -0.2218
-2.8116 FOURTEEN -0.2218
-2.8116 FOURTY-EIGHT -0.2218
-2.8116 FOURTY-FIVE -0.2218
-2.8116 FOURTY-FOUR -0.2218
-2.8116 FOURTY-NINE -0.2218
-2.8116 FOURTY-ONE -0.2218
-2.8116 FOURTY-SEVEN -0.2218
-2.8116 FOURTY-SIX -0.2218
-2.8116 FOURTY-THREE -0.2218
-2.8116 FOURTY-TWO -0.2218
-2.8116 FUCK -0.2218
-2.8116 GOODBYE -0.2218
-2.8116 GOOGLE -0.2218
-2.8116 HARRISON -0.2218
-2.8116 HELLO -0.2218
-2.8116 HISTORY -0.2218
-2.8116 HOLA -0.2218
-2.8116 I -0.2218
-2.8116 JOKE -0.2218
-2.8116 KYLE -0.2218
-2.8116 LET -0.2218
-2.8116 LIGHTS -0.2218
-2.8116 MUSIC -0.2218
-2.8116 NICK -0.2218
-2.8116 NINE -0.2218
-2.8116 NINETEEN -0.2218
-2.8116 O'CLOCK -0.2218
-2.8116 OFF -0.2218
-2.8116 ON -0.2218
-2.8116 ONE -0.2218
-2.8116 OUT -0.2218
-2.8116 P.M. -0.2218
-2.8116 PAPI -0.2218
-2.8116 PASA -0.2218
-2.8116 PLAY -0.2218
-2.8116 QUE -0.2218
-2.8116 QUIT -0.2218
-2.8116 SEARCH -0.2218
-2.8116 SEND -0.2218
-2.8116 SET -0.2218
-2.8116 SEVEN -0.2218
-2.8116 SEVENTEEN -0.2218
-2.8116 SHREK -0.2218
-2.8116 SIX -0.2218
-2.8116 SIXTEEN -0.2218
-2.8116 TEN -0.2218
-2.8116 TEXT -0.2218
-2.8116 THE -0.2218
-2.8116 THIRTEEN -0.2218
-2.8116 THIRTY -0.2218
-2.8116 THIRTY-EIGHT -0.2218
-2.8116 THIRTY-FIVE -0.2218
-2.8116 THIRTY-FOUR -0.2218
-2.8116 THIRTY-NINE -0.2218
-2.8116 THIRTY-ONE -0.2218
-2.8116 THIRTY-SEVEN -0.2218
-2.8116 THIRTY-SIX -0.2218
-2.8116 THIRTY-THREE -0.2218
-2.8116 THIRTY-TWO -0.2218
-2.8116 THREE -0.2218
-2.8116 TIMER -0.2218
-2.8116 TRAFFIC -0.2218
-2.8116 TURN -0.2218
-2.8116 TWELVE -0.2218
-2.8116 TWENTY -0.2218
-2.8116 TWENTY-EIGHT -0.2218
-2.8116 TWENTY-FIVE -0.2218
-2.8116 TWENTY-FOUR -0.2218
-2.8116 TWENTY-NINE -0.2218
-2.8116 TWENTY-ONE -0.2218
-2.8116 TWENTY-SEVEN -0.2218
-2.8116 TWENTY-SIX -0.2218
-2.8116 TWENTY-THREE -0.2218
-2.8116 TWENTY-TWO -0.2218
-2.8116 TWO -0.2218
-2.8116 WEATHER -0.2218
-2.8116 WHERE -0.2218
-2.8116 WHO -0.2218
-2.8116 YOU -0.2218

\2-grams:
-2.3345 <s> A.M. 0.0000
-2.3345 <s> ADIOS 0.0000
-2.3345 <s> ALARM 0.0000
-2.3345 <s> AM 0.0000
-2.3345 <s> BUTTERHORN 0.0000
-2.3345 <s> CAGE 0.0000
-2.3345 <s> CHECK 0.0000
-2.3345 <s> CONNECTED 0.0000
-2.3345 <s> DAGOBERTO 0.0000
-2.3345 <s> DESPACITO 0.0000
-2.3345 <s> DOGS 0.0000
-2.3345 <s> EIGHT 0.0000
-2.3345 <s> EIGHTEEN 0.0000
-2.3345 <s> ELEVEN 0.0000
-2.3345 <s> EMAIL 0.0000
-2.3345 <s> EVENTS 0.0000
-2.3345 <s> EXIT 0.0000
-2.3345 <s> FIFTEEN 0.0000
-2.3345 <s> FIFTY-EIGHT 0.0000
-2.3345 <s> FIFTY-FIVE 0.0000
-2.3345 <s> FIFTY-FOUR 0.0000
-2.3345 <s> FIFTY-NINE 0.0000
-2.3345 <s> FIFTY-ONE 0.0000
-2.3345 <s> FIFTY-SEVEN 0.0000
-2.3345 <s> FIFTY-SIX 0.0000
-2.3345 <s> FIFTY-THREE 0.0000
-2.3345 <s> FIFTY-TWO 0.0000
-2.3345 <s> FIVE 0.0000
-2.3345 <s> FOUR 0.0000
-2.3345 <s> FOURTEEN 0.0000
-2.3345 <s> FOURTY-EIGHT 0.0000
-2.3345 <s> FOURTY-FIVE 0.0000
-2.3345 <s> FOURTY-FOUR 0.0000
-2.3345 <s> FOURTY-NINE 0.0000
-2.3345 <s> FOURTY-ONE 0.0000
-2.3345 <s> FOURTY-SEVEN 0.0000
-2.3345 <s> FOURTY-SIX 0.0000
-2.3345 <s> FOURTY-THREE 0.0000
-2.3345 <s> FOURTY-TWO 0.0000
-2.3345 <s> FUCK 0.0000
-2.3345 <s> GOODBYE 0.0000
-2.3345 <s> GOOGLE 0.0000
-2.3345 <s> HARRISON 0.0000
-2.3345 <s> HELLO 0.0000
-2.3345 <s> HISTORY 0.0000
-2.3345 <s> HOLA 0.0000
-2.3345 <s> I 0.0000
-2.3345 <s> JOKE 0.0000
-2.3345 <s> KYLE 0.0000
-2.3345 <s> LET 0.0000
-2.3345 <s> LIGHTS 0.0000
-2.3345 <s> MUSIC 0.0000
-2.3345 <s> NICK 0.0000
-2.3345 <s> NINE 0.0000
-2.3345 <s> NINETEEN 0.0000
-2.3345 <s> O'CLOCK 0.0000
-2.3345 <s> OFF 0.0000
-2.3345 <s> ON 0.0000
-2.3345 <s> ONE 0.0000
-2.3345 <s> OUT 0.0000
-2.3345 <s> P.M. 0.0000
-2.3345 <s> PAPI 0.0000
-2.3345 <s> PASA 0.0000
-2.3345 <s> PLAY 0.0000
-2.3345 <s> QUE 0.0000
-2.3345 <s> QUIT 0.0000
-2.3345 <s> SEARCH 0.0000
-2.3345 <s> SEND 0.0000
-2.3345 <s> SET 0.0000
-2.3345 <s> SEVEN 0.0000
-2.3345 <s> SEVENTEEN 0.0000
-2.3345 <s> SHREK 0.0000
-2.3345 <s> SIX 0.0000
-2.3345 <s> SIXTEEN 0.0000
-2.3345 <s> TEN 0.0000
-2.3345 <s> TEXT 0.0000
-2.3345 <s> THE 0.0000
-2.3345 <s> THIRTEEN 0.0000
-2.3345 <s> THIRTY 0.0000
-2.3345 <s> THIRTY-EIGHT 0.0000
-2.3345 <s> THIRTY-FIVE 0.0000
-2.3345 <s> THIRTY-FOUR 0.0000
-2.3345 <s> THIRTY-NINE 0.0000
-2.3345 <s> THIRTY-ONE 0.0000
-2.3345 <s> THIRTY-SEVEN 0.0000
-2.3345 <s> THIRTY-SIX 0.0000
-2.3345 <s> THIRTY-THREE 0.0000
-2.3345 <s> THIRTY-TWO 0.0000
-2.3345 <s> THREE 0.0000
-2.3345 <s> TIMER 0.0000
-2.3345 <s> TRAFFIC 0.0000
-2.3345 <s> TURN 0.0000
-2.3345 <s> TWELVE 0.0000
-2.3345 <s> TWENTY 0.0000
-2.3345 <s> TWENTY-EIGHT 0.0000
-2.3345 <s> TWENTY-FIVE 0.0000
-2.3345 <s> TWENTY-FOUR 0.0000
-2.3345 <s> TWENTY-NINE 0.0000
-2.3345 <s> TWENTY-ONE 0.0000
-2.3345 <s> TWENTY-SEVEN 0.0000
-2.3345 <s> TWENTY-SIX 0.0000
-2.3345 <s> TWENTY-THREE 0.0000
-2.3345 <s> TWENTY-TWO 0.0000
-2.3345 <s> TWO 0.0000
-2.3345 <s> WEATHER 0.0000
-2.3345 <s> WHERE 0.0000
-2.3345 <s> WHO 0.0000
-2.3345 <s> YOU 0.0000
-0.3010 A.M. </s> -0.3010
-0.3010 ADIOS </s> -0.3010
-0.3010 ALARM </s> -0.3010
-0.3010 AM </s> -0.3010
-0.3010 BUTTERHORN </s> -0.3010
-0.3010 CAGE </s> -0.3010
-0.3010 CHECK </s> -0.3010
-0.3010 CONNECTED </s> -0.3010
-0.3010 DAGOBERTO </s> -0.3010
-0.3010 DESPACITO </s> -0.3010
-0.3010 DOGS </s> -0.3010
-0.3010 EIGHT </s> -0.3010
-0.3010 EIGHTEEN </s> -0.3010
-0.3010 ELEVEN </s> -0.3010
-0.3010 EMAIL </s> -0.3010
-0.3010 EVENTS </s> -0.3010
-0.3010 EXIT </s> -0.3010
-0.3010 FIFTEEN </s> -0.3010
-0.3010 FIFTY-EIGHT </s> -0.3010
-0.3010 FIFTY-FIVE </s> -0.3010
-0.3010 FIFTY-FOUR </s> -0.3010
-0.3010 FIFTY-NINE </s> -0.3010
-0.3010 FIFTY-ONE </s> -0.3010
-0.3010 FIFTY-SEVEN </s> -0.3010
-0.3010 FIFTY-SIX </s> -0.3010
-0.3010 FIFTY-THREE </s> -0.3010
-0.3010 FIFTY-TWO </s> -0.3010
-0.3010 FIVE </s> -0.3010
-0.3010 FOUR </s> -0.3010
-0.3010 FOURTEEN </s> -0.3010
-0.3010 FOURTY-EIGHT </s> -0.3010
-0.3010 FOURTY-FIVE </s> -0.3010
-0.3010 FOURTY-FOUR </s> -0.3010
-0.3010 FOURTY-NINE </s> -0.3010
-0.3010 FOURTY-ONE </s> -0.3010
-0.3010 FOURTY-SEVEN </s> -0.3010
-0.3010 FOURTY-SIX </s> -0.3010
-0.3010 FOURTY-THREE </s> -0.3010
-0.3010 FOURTY-TWO </s> -0.3010
-0.3010 FUCK </s> -0.3010
-0.3010 GOODBYE </s> -0.3010
-0.3010 GOOGLE </s> -0.3010
-0.3010 HARRISON </s> -0.3010
-0.3010 HELLO </s> -0.3010
-0.3010 HISTORY </s> -0.3010
-0.3010 HOLA </s> -0.3010
-0.3010 I </s> -0.3010
-0.3010 JOKE </s> -0.3010
-0.3010 KYLE </s> -0.3010
-0.3010 LET </s> -0.3010
-0.3010 LIGHTS </s> -0.3010
-0.3010 MUSIC </s> -0.3010
-0.3010 NICK </s> -0.3010
-0.3010 NINE </s> -0.3010
-0.3010 NINETEEN </s> -0.3010
-0.3010 O'CLOCK </s> -0.3010
-0.3010 OFF </s> -0.3010
-0.3010 ON </s> -0.3010
-0.3010 ONE </s> -0.3010
-0.3010 OUT </s> -0.3010
-0.3010 P.M. </s> -0.3010
-0.3010 PAPI </s> -0.3010
-0.3010 PASA </s> -0.3010
-0.3010 PLAY </s> -0.3010
-0.3010 QUE </s> -0.3010
-0.3010 QUIT </s> -0.3010
-0.3010 SEARCH </s> -0.3010
-0.3010 SEND </s> -0.3010
-0.3010 SET </s> -0.3010
-0.3010 SEVEN </s> -0.3010
-0.3010 SEVENTEEN </s> -0.3010
-0.3010 SHREK </s> -0.3010
-0.3010 SIX </s> -0.3010
-0.3010 SIXTEEN </s> -0.3010
-0.3010 TEN </s> -0.3010
-0.3010 TEXT </s> -0.3010
-0.3010 THE </s> -0.3010
-0.3010 THIRTEEN </s> -0.3010
-0.3010 THIRTY </s> -0.3010
-0.3010 THIRTY-EIGHT </s> -0.3010
-0.3010 THIRTY-FIVE </s> -0.3010
-0.3010 THIRTY-FOUR </s> -0.3010
-0.3010 THIRTY-NINE </s> -0.3010
-0.3010 THIRTY-ONE </s> -0.3010
-0.3010 THIRTY-SEVEN </s> -0.3010
-0.3010 THIRTY-SIX </s> -0.3010
-0.3010 THIRTY-THREE </s> -0.3010
-0.3010 THIRTY-TWO </s> -0.3010
-0.3010 THREE </s> -0.3010
-0.3010 TIMER </s> -0.3010
-0.3010 TRAFFIC </s> -0.3010
-0.3010 TURN </s> -0.3010
-0.3010 TWELVE </s> -0.3010
-0.3010 TWENTY </s> -0.3010
-0.3010 TWENTY-EIGHT </s> -0.3010
-0.3010 TWENTY-FIVE </s> -0.3010
-0.3010 TWENTY-FOUR </s> -0.3010
-0.3010 TWENTY-NINE </s> -0.3010
-0.3010 TWENTY-ONE </s> -0.3010
-0.3010 TWENTY-SEVEN </s> -0.3010
-0.3010 TWENTY-SIX </s> -0.3010
-0.3010 TWENTY-THREE </s> -0.3010
-0.3010 TWENTY-TWO </s> -0.3010
-0.3010 TWO </s> -0.3010
-0.3010 WEATHER </s> -0.3010
-0.3010 WHERE </s> -0.3010
-0.3010 WHO </s> -0.3010
-0.3010 YOU </s> -0.3010

\3-grams:
-0.3010 <s> A.M. </s>
-0.3010 <s> ADIOS </s>
-0.3010 <s> ALARM </s>
-0.3010 <s> AM </s>
-0.3010 <s> BUTTERHORN </s>
-0.3010 <s> CAGE </s>
-0.3010 <s> CHECK </s>
-0.3010 <s> CONNECTED </s>
-0.3010 <s> DAGOBERTO </s>
-0.3010 <s> DESPACITO </s>
-0.3010 <s> DOGS </s>
-0.3010 <s> EIGHT </s>
-0.3010 <s> EIGHTEEN </s>
-0.3010 <s> ELEVEN </s>
-0.3010 <s> EMAIL </s>
-0.3010 <s> EVENTS </s>
-0.3010 <s> EXIT </s>
-0.3010 <s> FIFTEEN </s>
-0.3010 <s> FIFTY-EIGHT </s>
-0.3010 <s> FIFTY-FIVE </s>
-0.3010 <s> FIFTY-FOUR </s>
-0.3010 <s> FIFTY-NINE </s>
-0.3010 <s> FIFTY-ONE </s>
-0.3010 <s> FIFTY-SEVEN </s>
-0.3010 <s> FIFTY-SIX </s>
-0.3010 <s> FIFTY-THREE </s>
-0.3010 <s> FIFTY-TWO </s>
-0.3010 <s> FIVE </s>
-0.3010 <s> FOUR </s>
-0.3010 <s> FOURTEEN </s>
-0.3010 <s> FOURTY-EIGHT </s>
-0.3010 <s> FOURTY-FIVE </s>
-0.3010 <s> FOURTY-FOUR </s>
-0.3010 <s> FOURTY-NINE </s>
-0.3010 <s> FOURTY-ONE </s>
-0.3010 <s> FOURTY-SEVEN </s>
-0.3010 <s> FOURTY-SIX </s>
-0.3010 <s> FOURTY-THREE </s>
-0.3010 <s> FOURTY-TWO </s>
-0.3010 <s> FUCK </s>
-0.3010 <s> GOODBYE </s>
-0.3010 <s> GOOGLE </s>
-0.3010 <s> HARRISON </s>
-0.3010 <s> HELLO </s>
-0.3010 <s> HISTORY </s>
-0.3010 <s> HOLA </s>
-0.3010 <s> I </s>
-0.3010 <s> JOKE </s>
-0.3010 <s> KYLE </s>
-0.3010 <s> LET </s>
-0.3010 <s> LIGHTS </s>
-0.3010 <s> MUSIC </s>
-0.3010 <s> NICK </s>
-0.3010 <s> NINE </s>
-0.3010 <s> NINETEEN </s>
-0.3010 <s> O'CLOCK </s>
-0.3010 <s> OFF </s>
-0.3010 <s> ON </s>
-0.3010 <s> ONE </s>
-0.3010 <s> OUT </s>
-0.3010 <s> P.M. </s>
-0.3010 <s> PAPI </s>
-0.3010 <s> PASA </s>
-0.3010 <s> PLAY </s>
-0.3010 <s> QUE </s>
-0.3010 <s> QUIT </s>
-0.3010 <s> SEARCH </s>
-0.3010 <s> SEND </s>
-0.3010 <s> SET </s>
-0.3010 <s> SEVEN </s>
-0.3010 <s> SEVENTEEN </s>
-0.3010 <s> SHREK </s>
-0.3010 <s> SIX </s>
-0.3010 <s> SIXTEEN </s>
-0.3010 <s> TEN </s>
-0.3010 <s> TEXT </s>
-0.3010 <s> THE </s>
-0.3010 <s> THIRTEEN </s>
-0.3010 <s> THIRTY </s>
-0.3010 <s> THIRTY-EIGHT </s>
-0.3010 <s> THIRTY-FIVE </s>
-0.3010 <s> THIRTY-FOUR </s>
-0.3010 <s> THIRTY-NINE </s>
-0.3010 <s> THIRTY-ONE </s>
-0.3010 <s> THIRTY-SEVEN </s>
-0.3010 <s> THIRTY-SIX </s>
-0.3010 <s> THIRTY-THREE </s>
-0.3010 <s> THIRTY-TWO </s>
-0.3010 <s> THREE </s>
-0.3010 <s> TIMER </s>
-0.3010 <s> TRAFFIC </s>
-0.3010 <s> TURN </s>
-0.3010 <s> TWELVE </s>
-0.3010 <s> TWENTY </s>
-0.3010 <s> TWENTY-EIGHT </s>
-0.3010 <s> TWENTY-FIVE </s>
-0.3010 <s> TWENTY-FOUR </s>
-0.3010 <s> TWENTY-NINE </s>
-0.3010 <s> TWENTY-ONE </s>
-0.3010 <s> TWENTY-SEVEN </s>
-0.3010 <s> TWENTY-SIX </s>
-0.3010 <s> TWENTY-THREE </s>
-0.3010 <s> TWENTY-TWO </s>
-0.3010 <s> TWO </s>
-0.3010 <s> WEATHER </s>
-0.3010 <s> WHERE </s>
-0.3010 <s> WHO </s>
-0.3010 <s> YOU </s>

\end\
