Language model created by QuickLM on Mon Mar 26 21:30:15 EDT 2018
Copyright (c) 1996-2010 Carnegie Mellon University and Alexander I. Rudnicky

The model is in standard ARPA format, designed by Doug Paul while he was at MITRE.

The code that was used to produce this language model is available in Open Source.
Please visit http://www.speech.cs.cmu.edu/tools/ for more information

The (fixed) discount mass is 0.5. The backoffs are computed using the ratio method.
This model based on a corpus of 67 sentences and 69 words

\data\
ngram 1=69
ngram 2=134
ngram 3=67

\1-grams:
-0.7782 </s> -0.3010
-0.7782 <s> -0.2218
-2.6042 A.M. -0.2218
-2.6042 ADIOS -0.2218
-2.6042 ALARM -0.2218
-2.6042 BUTTERHORN -0.2218
-2.6042 CAGE -0.2218
-2.6042 CONNECTED -0.2218
-2.6042 DAGOBERTO -0.2218
-2.6042 DESPACITO -0.2218
-2.6042 DOGS -0.2218
-2.6042 EIGHT -0.2218
-2.6042 EIGHTEEN -0.2218
-2.6042 ELEVEN -0.2218
-2.6042 EMAIL -0.2218
-2.6042 EVENTS -0.2218
-2.6042 EXIT -0.2218
-2.6042 FIFTEEN -0.2218
-2.6042 FIFTY -0.2218
-2.6042 FIVE -0.2218
-2.6042 FOUR -0.2218
-2.6042 FOURTEEN -0.2218
-2.6042 FOURTY -0.2218
-2.6042 GOODBYE -0.2218
-2.6042 GOOGLE -0.2218
-2.6042 HARRISON -0.2218
-2.6042 HELLO -0.2218
-2.6042 HISTORY -0.2218
-2.6042 HOLA -0.2218
-2.6042 JOKE -0.2218
-2.6042 KYLE -0.2218
-2.6042 LET -0.2218
-2.6042 LIGHTS -0.2218
-2.6042 MUSIC -0.2218
-2.6042 NICK -0.2218
-2.6042 NINE -0.2218
-2.6042 NINETEEN -0.2218
-2.6042 O'CLOCK -0.2218
-2.6042 OFF -0.2218
-2.6042 ON -0.2218
-2.6042 ONE -0.2218
-2.6042 OUT -0.2218
-2.6042 P.M. -0.2218
-2.6042 PAPI -0.2218
-2.6042 PASA -0.2218
-2.6042 QUE -0.2218
-2.6042 QUIT -0.2218
-2.6042 SEARCH -0.2218
-2.6042 SEND -0.2218
-2.6042 SET -0.2218
-2.6042 SEVEN -0.2218
-2.6042 SEVENTEEN -0.2218
-2.6042 SHREK -0.2218
-2.6042 SIX -0.2218
-2.6042 SIXTEEN -0.2218
-2.6042 TEN -0.2218
-2.6042 TEXT -0.2218
-2.6042 THE -0.2218
-2.6042 THIRTEEN -0.2218
-2.6042 THIRTY -0.2218
-2.6042 THREE -0.2218
-2.6042 TIMER -0.2218
-2.6042 TRAFFIC -0.2218
-2.6042 TURN -0.2218
-2.6042 TWELVE -0.2218
-2.6042 TWENTY -0.2218
-2.6042 TWO -0.2218
-2.6042 WEATHER -0.2218
-2.6042 WHO -0.2218

\2-grams:
-2.1271 <s> A.M. 0.0000
-2.1271 <s> ADIOS 0.0000
-2.1271 <s> ALARM 0.0000
-2.1271 <s> BUTTERHORN 0.0000
-2.1271 <s> CAGE 0.0000
-2.1271 <s> CONNECTED 0.0000
-2.1271 <s> DAGOBERTO 0.0000
-2.1271 <s> DESPACITO 0.0000
-2.1271 <s> DOGS 0.0000
-2.1271 <s> EIGHT 0.0000
-2.1271 <s> EIGHTEEN 0.0000
-2.1271 <s> ELEVEN 0.0000
-2.1271 <s> EMAIL 0.0000
-2.1271 <s> EVENTS 0.0000
-2.1271 <s> EXIT 0.0000
-2.1271 <s> FIFTEEN 0.0000
-2.1271 <s> FIFTY 0.0000
-2.1271 <s> FIVE 0.0000
-2.1271 <s> FOUR 0.0000
-2.1271 <s> FOURTEEN 0.0000
-2.1271 <s> FOURTY 0.0000
-2.1271 <s> GOODBYE 0.0000
-2.1271 <s> GOOGLE 0.0000
-2.1271 <s> HARRISON 0.0000
-2.1271 <s> HELLO 0.0000
-2.1271 <s> HISTORY 0.0000
-2.1271 <s> HOLA 0.0000
-2.1271 <s> JOKE 0.0000
-2.1271 <s> KYLE 0.0000
-2.1271 <s> LET 0.0000
-2.1271 <s> LIGHTS 0.0000
-2.1271 <s> MUSIC 0.0000
-2.1271 <s> NICK 0.0000
-2.1271 <s> NINE 0.0000
-2.1271 <s> NINETEEN 0.0000
-2.1271 <s> O'CLOCK 0.0000
-2.1271 <s> OFF 0.0000
-2.1271 <s> ON 0.0000
-2.1271 <s> ONE 0.0000
-2.1271 <s> OUT 0.0000
-2.1271 <s> P.M. 0.0000
-2.1271 <s> PAPI 0.0000
-2.1271 <s> PASA 0.0000
-2.1271 <s> QUE 0.0000
-2.1271 <s> QUIT 0.0000
-2.1271 <s> SEARCH 0.0000
-2.1271 <s> SEND 0.0000
-2.1271 <s> SET 0.0000
-2.1271 <s> SEVEN 0.0000
-2.1271 <s> SEVENTEEN 0.0000
-2.1271 <s> SHREK 0.0000
-2.1271 <s> SIX 0.0000
-2.1271 <s> SIXTEEN 0.0000
-2.1271 <s> TEN 0.0000
-2.1271 <s> TEXT 0.0000
-2.1271 <s> THE 0.0000
-2.1271 <s> THIRTEEN 0.0000
-2.1271 <s> THIRTY 0.0000
-2.1271 <s> THREE 0.0000
-2.1271 <s> TIMER 0.0000
-2.1271 <s> TRAFFIC 0.0000
-2.1271 <s> TURN 0.0000
-2.1271 <s> TWELVE 0.0000
-2.1271 <s> TWENTY 0.0000
-2.1271 <s> TWO 0.0000
-2.1271 <s> WEATHER 0.0000
-2.1271 <s> WHO 0.0000
-0.3010 A.M. </s> -0.3010
-0.3010 ADIOS </s> -0.3010
-0.3010 ALARM </s> -0.3010
-0.3010 BUTTERHORN </s> -0.3010
-0.3010 CAGE </s> -0.3010
-0.3010 CONNECTED </s> -0.3010
-0.3010 DAGOBERTO </s> -0.3010
-0.3010 DESPACITO </s> -0.3010
-0.3010 DOGS </s> -0.3010
-0.3010 EIGHT </s> -0.3010
-0.3010 EIGHTEEN </s> -0.3010
-0.3010 ELEVEN </s> -0.3010
-0.3010 EMAIL </s> -0.3010
-0.3010 EVENTS </s> -0.3010
-0.3010 EXIT </s> -0.3010
-0.3010 FIFTEEN </s> -0.3010
-0.3010 FIFTY </s> -0.3010
-0.3010 FIVE </s> -0.3010
-0.3010 FOUR </s> -0.3010
-0.3010 FOURTEEN </s> -0.3010
-0.3010 FOURTY </s> -0.3010
-0.3010 GOODBYE </s> -0.3010
-0.3010 GOOGLE </s> -0.3010
-0.3010 HARRISON </s> -0.3010
-0.3010 HELLO </s> -0.3010
-0.3010 HISTORY </s> -0.3010
-0.3010 HOLA </s> -0.3010
-0.3010 JOKE </s> -0.3010
-0.3010 KYLE </s> -0.3010
-0.3010 LET </s> -0.3010
-0.3010 LIGHTS </s> -0.3010
-0.3010 MUSIC </s> -0.3010
-0.3010 NICK </s> -0.3010
-0.3010 NINE </s> -0.3010
-0.3010 NINETEEN </s> -0.3010
-0.3010 O'CLOCK </s> -0.3010
-0.3010 OFF </s> -0.3010
-0.3010 ON </s> -0.3010
-0.3010 ONE </s> -0.3010
-0.3010 OUT </s> -0.3010
-0.3010 P.M. </s> -0.3010
-0.3010 PAPI </s> -0.3010
-0.3010 PASA </s> -0.3010
-0.3010 QUE </s> -0.3010
-0.3010 QUIT </s> -0.3010
-0.3010 SEARCH </s> -0.3010
-0.3010 SEND </s> -0.3010
-0.3010 SET </s> -0.3010
-0.3010 SEVEN </s> -0.3010
-0.3010 SEVENTEEN </s> -0.3010
-0.3010 SHREK </s> -0.3010
-0.3010 SIX </s> -0.3010
-0.3010 SIXTEEN </s> -0.3010
-0.3010 TEN </s> -0.3010
-0.3010 TEXT </s> -0.3010
-0.3010 THE </s> -0.3010
-0.3010 THIRTEEN </s> -0.3010
-0.3010 THIRTY </s> -0.3010
-0.3010 THREE </s> -0.3010
-0.3010 TIMER </s> -0.3010
-0.3010 TRAFFIC </s> -0.3010
-0.3010 TURN </s> -0.3010
-0.3010 TWELVE </s> -0.3010
-0.3010 TWENTY </s> -0.3010
-0.3010 TWO </s> -0.3010
-0.3010 WEATHER </s> -0.3010
-0.3010 WHO </s> -0.3010

\3-grams:
-0.3010 <s> A.M. </s>
-0.3010 <s> ADIOS </s>
-0.3010 <s> ALARM </s>
-0.3010 <s> BUTTERHORN </s>
-0.3010 <s> CAGE </s>
-0.3010 <s> CONNECTED </s>
-0.3010 <s> DAGOBERTO </s>
-0.3010 <s> DESPACITO </s>
-0.3010 <s> DOGS </s>
-0.3010 <s> EIGHT </s>
-0.3010 <s> EIGHTEEN </s>
-0.3010 <s> ELEVEN </s>
-0.3010 <s> EMAIL </s>
-0.3010 <s> EVENTS </s>
-0.3010 <s> EXIT </s>
-0.3010 <s> FIFTEEN </s>
-0.3010 <s> FIFTY </s>
-0.3010 <s> FIVE </s>
-0.3010 <s> FOUR </s>
-0.3010 <s> FOURTEEN </s>
-0.3010 <s> FOURTY </s>
-0.3010 <s> GOODBYE </s>
-0.3010 <s> GOOGLE </s>
-0.3010 <s> HARRISON </s>
-0.3010 <s> HELLO </s>
-0.3010 <s> HISTORY </s>
-0.3010 <s> HOLA </s>
-0.3010 <s> JOKE </s>
-0.3010 <s> KYLE </s>
-0.3010 <s> LET </s>
-0.3010 <s> LIGHTS </s>
-0.3010 <s> MUSIC </s>
-0.3010 <s> NICK </s>
-0.3010 <s> NINE </s>
-0.3010 <s> NINETEEN </s>
-0.3010 <s> O'CLOCK </s>
-0.3010 <s> OFF </s>
-0.3010 <s> ON </s>
-0.3010 <s> ONE </s>
-0.3010 <s> OUT </s>
-0.3010 <s> P.M. </s>
-0.3010 <s> PAPI </s>
-0.3010 <s> PASA </s>
-0.3010 <s> QUE </s>
-0.3010 <s> QUIT </s>
-0.3010 <s> SEARCH </s>
-0.3010 <s> SEND </s>
-0.3010 <s> SET </s>
-0.3010 <s> SEVEN </s>
-0.3010 <s> SEVENTEEN </s>
-0.3010 <s> SHREK </s>
-0.3010 <s> SIX </s>
-0.3010 <s> SIXTEEN </s>
-0.3010 <s> TEN </s>
-0.3010 <s> TEXT </s>
-0.3010 <s> THE </s>
-0.3010 <s> THIRTEEN </s>
-0.3010 <s> THIRTY </s>
-0.3010 <s> THREE </s>
-0.3010 <s> TIMER </s>
-0.3010 <s> TRAFFIC </s>
-0.3010 <s> TURN </s>
-0.3010 <s> TWELVE </s>
-0.3010 <s> TWENTY </s>
-0.3010 <s> TWO </s>
-0.3010 <s> WEATHER </s>
-0.3010 <s> WHO </s>

\end\
